{
  "weights": {
    "accuracy_weight": 0.5,
    "latency_weight": 0.3,
    "clean_energy_weight": 0.2
  },
  "model_weights": {
    "YOLOv10_N": [
      -0.0628217403846035, -0.0606247553300589, -0.048318351182822544,
      -0.06425142972722174
    ],
    "YOLOv10_S": [
      -0.06759408200917925, -0.06341888184100607, -0.05399542558111394,
      0.014121864617104053
    ],
    "YOLOv10_M": [
      -0.06270705831020273, -0.06955649801347337, -0.07320678176595266,
      0.0030514757175295086
    ],
    "YOLOv10_B": [
      -0.06897177408964235, -0.06624919581359535, -0.05879135131488454,
      0.03889332684227659
    ],
    "YOLOv10_L": [
      -0.06825948674269926, -0.06704208257789193, -0.06109515430803492,
      0.04274905513252342
    ],
    "YOLOv10_X": [
      -0.0723504273219183, -0.06699643834350792, -0.0642699076577874,
      0.053337576088288374
    ]
  },
  "charge_weights": [
    -0.001173344050161429, 0.0009482621678152947, 0.001954958002668733,
    0.0019517319880627269
  ],
  "charge_threshold": 0.0,
  "evaluation_stats": {
    "loss": 0.08576624967502681,
    "model_accuracy": 0.7614238576142386,
    "charge_accuracy": 0.9018098190180982,
    "overall_accuracy": 0.8316168383161684,
    "training_epochs": 52,
    "training_samples": 100000
  }
}
